<?xml version="1.0"?>
<opencv_storage>
<cascade>
  <stageType>BOOST</stageType>
  <featureType>HAAR</featureType>
  <height>32</height>
  <width>32</width>
  <stageParams>
    <boostType>GAB</boostType>
    <minHitRate>9.9699997901916504e-001</minHitRate>
    <maxFalseAlarm>5.0000000000000000e-001</maxFalseAlarm>
    <weightTrimRate>9.4999999999999996e-001</weightTrimRate>
    <maxDepth>1</maxDepth>
    <maxWeakCount>150</maxWeakCount></stageParams>
  <featureParams>
    <maxCatCount>0</maxCatCount>
    <featSize>1</featSize>
    <mode>ALL</mode></featureParams>
  <stageNum>18</stageNum>
  <stages>
    <!-- stage 0 -->
    <_>
      <maxWeakCount>5</maxWeakCount>
      <stageThreshold>-1.7127715349197388e+000</stageThreshold>
      <weakClassifiers>
        <_>
          <internalNodes>
            0 -1 29 2.1703889966011047e-001</internalNodes>
          <leafValues>
            -8.2451659440994263e-001 6.4584809541702271e-001</leafValues></_>
        <_>
          <internalNodes>
            0 -1 78 -6.6892863251268864e-003</internalNodes>
          <leafValues>
            4.4695222377777100e-001 -8.9515751600265503e-001</leafValues></_>
        <_>
          <internalNodes>
            0 -1 156 -2.2804688662290573e-002</internalNodes>
          <leafValues>
            3.7457162141799927e-001 -8.1199151277542114e-001</leafValues></_>
        <_>
          <internalNodes>
            0 -1 159 -2.3614648729562759e-002</internalNodes>
          <leafValues>
            5.3002893924713135e-001 -5.2645486593246460e-001</leafValues></_>
        <_>
          <internalNodes>
            0 -1 110 2.8020811441820115e-005</internalNodes>
          <leafValues>
            -8.9769792556762695e-001 3.2116776704788208e-001</leafValues></_></weakClassifiers></_>
    <!-- stage 1 -->
    <_>
      <maxWeakCount>6</maxWeakCount>
      <stageThreshold>-1.6028397083282471e+000</stageThreshold>
      <weakClassifiers>
        <_>
          <internalNodes>
            0 -1 29 2.3850074410438538e-001</internalNodes>
          <leafValues>
            -8.0711907148361206e-001 7.3276859521865845e-001</leafValues></_>
        <_>
          <internalNodes>
            0 -1 26 -2.5055069476366043e-002</internalNodes>
          <leafValues>
            4.1983100771903992e-001 -7.8112185001373291e-001</leafValues></_>
        <_>
          <internalNodes>
            0 -1 132 -1.4337553875520825e-004</internalNodes>
          <leafValues>
            3.9966216683387756e-001 -7.6933574676513672e-001</leafValues></_>
        <_>
          <internalNodes>
            0 -1 75 -9.5905992202460766e-004</internalNodes>
          <leafValues>
            -9.1099578142166138e-001 2.3156139254570007e-001</leafValues></_>
        <_>
          <internalNodes>
            0 -1 131 2.8275267686694860e-004</internalNodes>
          <leafValues>
            -8.7095564603805542e-001 2.8937408328056335e-001</leafValues></_>
        <_>
          <internalNodes>
            0 -1 117 -6.9442379754036665e-004</internalNodes>
          <leafValues>
            -8.9085698127746582e-001 2.3380145430564880e-001</leafValues></_></weakClassifiers></_>
    <!-- stage 2 -->
    <_>
      <maxWeakCount>5</maxWeakCount>
      <stageThreshold>-1.2164552211761475e+000</stageThreshold>
      <weakClassifiers>
        <_>
          <internalNodes>
            0 -1 40 1.8572857975959778e-001</internalNodes>
          <leafValues>
            -6.5244472026824951e-001 7.9339724779129028e-001</leafValues></_>
        <_>
          <internalNodes>
            0 -1 80 -6.2729883939027786e-003</internalNodes>
          <leafValues>
            7.7367252111434937e-001 -4.5150613784790039e-001</leafValues></_>
        <_>
          <internalNodes>
            0 -1 153 5.4596878588199615e-002</internalNodes>
          <leafValues>
            -5.8866482973098755e-001 4.5379841327667236e-001</leafValues></_>
        <_>
          <internalNodes>
            0 -1 99 5.7890382595360279e-004</internalNodes>
          <leafValues>
            2.7026966214179993e-001 -8.8428062200546265e-001</leafValues></_>
        <_>
          <internalNodes>
            0 -1 98 -4.7553190961480141e-004</internalNodes>
          <leafValues>
            -9.0720087289810181e-001 2.7064633369445801e-001</leafValues></_></weakClassifiers></_>
    <!-- stage 3 -->
    <_>
      <maxWeakCount>4</maxWeakCount>
      <stageThreshold>-1.2923052310943604e+000</stageThreshold>
      <weakClassifiers>
        <_>
          <internalNodes>
            0 -1 153 6.5092228353023529e-002</internalNodes>
          <leafValues>
            -8.6120724678039551e-001 5.7456421852111816e-001</leafValues></_>
        <_>
          <internalNodes>
            0 -1 148 4.8823026008903980e-004</internalNodes>
          <leafValues>
            2.0745752751827240e-001 -8.6613738536834717e-001</leafValues></_>
        <_>
          <internalNodes>
            0 -1 64 -4.7869962872937322e-004</internalNodes>
          <leafValues>
            -8.8494700193405151e-001 1.9928747415542603e-001</leafValues></_>
        <_>
          <internalNodes>
            0 -1 125 4.1383091593161225e-004</internalNodes>
          <leafValues>
            -8.3784270286560059e-001 2.4639141559600830e-001</leafValues></_></weakClassifiers></_>
    <!-- stage 4 -->
    <_>
      <maxWeakCount>7</maxWeakCount>
      <stageThreshold>-2.2257680892944336e+000</stageThreshold>
      <weakClassifiers>
        <_>
          <internalNodes>
            0 -1 159 -2.8746649622917175e-002</internalNodes>
          <leafValues>
            4.5288556814193726e-001 -7.8138732910156250e-001</leafValues></_>
        <_>
          <internalNodes>
            0 -1 86 -1.3436870176519733e-005</internalNodes>
          <leafValues>
            3.5535845160484314e-001 -6.6525375843048096e-001</leafValues></_>
        <_>
          <internalNodes>
            0 -1 33 1.5440142154693604e-001</internalNodes>
          <leafValues>
            -3.8992828130722046e-001 7.0965683460235596e-001</leafValues></_>
        <_>
          <internalNodes>
            0 -1 111 1.5202260328806005e-005</internalNodes>
          <leafValues>
            -5.8443975448608398e-001 3.9682823419570923e-001</leafValues></_>
        <_>
          <internalNodes>
            0 -1 126 2.2448733216151595e-004</internalNodes>
          <leafValues>
            -8.1487643718719482e-001 2.6966437697410583e-001</leafValues></_>
        <_>
          <internalNodes>
            0 -1 16 -7.4675533687695861e-004</internalNodes>
          <leafValues>
            -7.5236552953720093e-001 2.5081828236579895e-001</leafValues></_>
        <_>
          <internalNodes>
            0 -1 41 1.5787265729159117e-003</internalNodes>
          <leafValues>
            -5.7137507200241089e-001 3.3648663759231567e-001</leafValues></_></weakClassifiers></_>
    <!-- stage 5 -->
    <_>
      <maxWeakCount>8</maxWeakCount>
      <stageThreshold>-1.6627300977706909e+000</stageThreshold>
      <weakClassifiers>
        <_>
          <internalNodes>
            0 -1 1 1.8301894888281822e-002</internalNodes>
          <leafValues>
            -7.1737420558929443e-001 2.9576587677001953e-001</leafValues></_>
        <_>
          <internalNodes>
            0 -1 165 -1.6669996082782745e-002</internalNodes>
          <leafValues>
            4.2502337694168091e-001 -5.9179776906967163e-001</leafValues></_>
        <_>
          <internalNodes>
            0 -1 23 -5.3312098607420921e-003</internalNodes>
          <leafValues>
            3.4506765007972717e-001 -6.4415073394775391e-001</leafValues></_>
        <_>
          <internalNodes>
            0 -1 79 1.4315226508188061e-005</internalNodes>
          <leafValues>
            -5.6678050756454468e-001 3.4737446904182434e-001</leafValues></_>
        <_>
          <internalNodes>
            0 -1 102 -2.4165306240320206e-003</internalNodes>
          <leafValues>
            -9.0738666057586670e-001 2.2404618561267853e-001</leafValues></_>
        <_>
          <internalNodes>
            0 -1 102 1.8893384840339422e-003</internalNodes>
          <leafValues>
            2.5441959500312805e-001 -7.5408446788787842e-001</leafValues></_>
        <_>
          <internalNodes>
            0 -1 106 -1.2343663256615400e-003</internalNodes>
          <leafValues>
            2.8000542521476746e-001 -6.5135806798934937e-001</leafValues></_>
        <_>
          <internalNodes>
            0 -1 178 7.1267335442826152e-004</internalNodes>
          <leafValues>
            1.9325104355812073e-001 -7.7733939886093140e-001</leafValues></_></weakClassifiers></_>
    <!-- stage 6 -->
    <_>
      <maxWeakCount>9</maxWeakCount>
      <stageThreshold>-1.7627415657043457e+000</stageThreshold>
      <weakClassifiers>
        <_>
          <internalNodes>
            0 -1 35 2.5358313322067261e-001</internalNodes>
          <leafValues>
            -5.8369767665863037e-001 5.4746836423873901e-001</leafValues></_>
        <_>
          <internalNodes>
            0 -1 81 -1.8606528174132109e-003</internalNodes>
          <leafValues>
            4.4798481464385986e-001 -6.0390138626098633e-001</leafValues></_>
        <_>
          <internalNodes>
            0 -1 152 4.6030510566197336e-004</internalNodes>
          <leafValues>
            -8.3422309160232544e-001 2.2162060439586639e-001</leafValues></_>
        <_>
          <internalNodes>
            0 -1 7 2.3361362516880035e-002</internalNodes>
          <leafValues>
            -3.2455620169639587e-001 6.1827570199966431e-001</leafValues></_>
        <_>
          <internalNodes>
            0 -1 4 -4.5896470546722412e-002</internalNodes>
          <leafValues>
            5.4669684171676636e-001 -3.6995309591293335e-001</leafValues></_>
        <_>
          <internalNodes>
            0 -1 161 -1.5942929312586784e-002</internalNodes>
          <leafValues>
            2.8002631664276123e-001 -7.5810343027114868e-001</leafValues></_>
        <_>
          <internalNodes>
            0 -1 175 1.4858432114124298e-003</internalNodes>
          <leafValues>
            2.6954630017280579e-001 -6.4917993545532227e-001</leafValues></_>
        <_>
          <internalNodes>
            0 -1 103 5.7114777155220509e-004</internalNodes>
          <leafValues>
            2.0465850830078125e-001 -8.7102872133255005e-001</leafValues></_>
        <_>
          <internalNodes>
            0 -1 83 -1.0457978351041675e-003</internalNodes>
          <leafValues>
            -8.1196868419647217e-001 1.8372105062007904e-001</leafValues></_></weakClassifiers></_>
    <!-- stage 7 -->
    <_>
      <maxWeakCount>10</maxWeakCount>
      <stageThreshold>-1.8305193185806274e+000</stageThreshold>
      <weakClassifiers>
        <_>
          <internalNodes>
            0 -1 24 5.3233194351196289e-001</internalNodes>
          <leafValues>
            -6.2519359588623047e-001 3.7484934926033020e-001</leafValues></_>
        <_>
          <internalNodes>
            0 -1 89 -4.9077009316533804e-004</internalNodes>
          <leafValues>
            3.8491135835647583e-001 -5.5488848686218262e-001</leafValues></_>
        <_>
          <internalNodes>
            0 -1 12 -7.5161061249673367e-003</internalNodes>
          <leafValues>
            1.8818667531013489e-001 -8.8325858116149902e-001</leafValues></_>
        <_>
          <internalNodes>
            0 -1 14 -1.6689071198925376e-003</internalNodes>
          <leafValues>
            -7.0640814304351807e-001 2.7600568532943726e-001</leafValues></_>
        <_>
          <internalNodes>
            0 -1 44 -1.1371845379471779e-002</internalNodes>
          <leafValues>
            2.7355873584747314e-001 -5.7105416059494019e-001</leafValues></_>
        <_>
          <internalNodes>
            0 -1 87 -1.2945510206918698e-005</internalNodes>
          <leafValues>
            2.8519544005393982e-001 -5.3601056337356567e-001</leafValues></_>
        <_>
          <internalNodes>
            0 -1 52 2.5359252467751503e-003</internalNodes>
          <leafValues>
            2.1025596559047699e-001 -7.7263677120208740e-001</leafValues></_>
        <_>
          <internalNodes>
            0 -1 67 -1.2180219637230039e-003</internalNodes>
          <leafValues>
            -7.2093015909194946e-001 1.8228583037853241e-001</leafValues></_>
        <_>
          <internalNodes>
            0 -1 43 -1.2858103727921844e-003</internalNodes>
          <leafValues>
            1.4797653257846832e-001 -8.6619955301284790e-001</leafValues></_>
        <_>
          <internalNodes>
            0 -1 166 -2.2082284092903137e-002</internalNodes>
          <leafValues>
            4.8974850773811340e-001 -3.2125091552734375e-001</leafValues></_></weakClassifiers></_>
    <!-- stage 8 -->
    <_>
      <maxWeakCount>9</maxWeakCount>
      <stageThreshold>-1.8592025041580200e+000</stageThreshold>
      <weakClassifiers>
        <_>
          <internalNodes>
            0 -1 158 -2.6140850037336349e-002</internalNodes>
          <leafValues>
            2.0341697335243225e-001 -7.6021081209182739e-001</leafValues></_>
        <_>
          <internalNodes>
            0 -1 145 -1.7841473163571209e-004</internalNodes>
          <leafValues>
            3.7435352802276611e-001 -5.1144587993621826e-001</leafValues></_>
        <_>
          <internalNodes>
            0 -1 137 3.9843209087848663e-002</internalNodes>
          <leafValues>
            -3.6300280690193176e-001 5.1696771383285522e-001</leafValues></_>
        <_>
          <internalNodes>
            0 -1 18 -4.4759362936019897e-004</internalNodes>
          <leafValues>
            -8.7434780597686768e-001 2.0604747533798218e-001</leafValues></_>
        <_>
          <internalNodes>
            0 -1 122 1.0340535081923008e-003</internalNodes>
          <leafValues>
            -4.5574292540550232e-001 3.6067244410514832e-001</leafValues></_>
        <_>
          <internalNodes>
            0 -1 115 -8.8022084673866630e-004</internalNodes>
          <leafValues>
            -8.7423926591873169e-001 1.4688956737518311e-001</leafValues></_>
        <_>
          <internalNodes>
            0 -1 116 7.0322153624147177e-004</internalNodes>
          <leafValues>
            1.7094197869300842e-001 -8.9106601476669312e-001</leafValues></_>
        <_>
          <internalNodes>
            0 -1 157 6.3805356621742249e-003</internalNodes>
          <leafValues>
            -4.8902454972267151e-001 2.8540503978729248e-001</leafValues></_>
        <_>
          <internalNodes>
            0 -1 13 1.4475267380475998e-003</internalNodes>
          <leafValues>
            1.9634547829627991e-001 -8.0818855762481689e-001</leafValues></_></weakClassifiers></_>
    <!-- stage 9 -->
    <_>
      <maxWeakCount>11</maxWeakCount>
      <stageThreshold>-1.7126433849334717e+000</stageThreshold>
      <weakClassifiers>
        <_>
          <internalNodes>
            0 -1 9 -5.6382995098829269e-003</internalNodes>
          <leafValues>
            2.4861156940460205e-001 -6.6062223911285400e-001</leafValues></_>
        <_>
          <internalNodes>
            0 -1 95 -7.9478579573333263e-004</internalNodes>
          <leafValues>
            3.3299511671066284e-001 -5.8968299627304077e-001</leafValues></_>
        <_>
          <internalNodes>
            0 -1 2 2.0009282976388931e-002</internalNodes>
          <leafValues>
            -5.1850944757461548e-001 3.2530954480171204e-001</leafValues></_>
        <_>
          <internalNodes>
            0 -1 94 1.9543564412742853e-003</internalNodes>
          <leafValues>
            1.7112597823143005e-001 -8.4813839197158813e-001</leafValues></_>
        <_>
          <internalNodes>
            0 -1 112 6.1595178522111382e-006</internalNodes>
          <leafValues>
            -5.3285169601440430e-001 3.2241779565811157e-001</leafValues></_>
        <_>
          <internalNodes>
            0 -1 97 -8.2392001058906317e-004</internalNodes>
          <leafValues>
            -8.0606544017791748e-001 1.8354177474975586e-001</leafValues></_>
        <_>
          <internalNodes>
            0 -1 61 6.9559121038764715e-004</internalNodes>
          <leafValues>
            -4.7131618857383728e-001 3.1101906299591064e-001</leafValues></_>
        <_>
          <internalNodes>
            0 -1 28 -1.5805197181180120e-003</internalNodes>
          <leafValues>
            2.7406349778175354e-001 -5.1257747411727905e-001</leafValues></_>
        <_>
          <internalNodes>
            0 -1 53 -9.1282359790056944e-004</internalNodes>
          <leafValues>
            -8.2994163036346436e-001 1.7383055388927460e-001</leafValues></_>
        <_>
          <internalNodes>
            0 -1 182 -6.8990036379545927e-004</internalNodes>
          <leafValues>
            -7.2884505987167358e-001 1.5176203846931458e-001</leafValues></_>
        <_>
          <internalNodes>
            0 -1 179 -1.3081100769340992e-003</internalNodes>
          <leafValues>
            -5.6545436382293701e-001 2.1403832733631134e-001</leafValues></_></weakClassifiers></_>
    <!-- stage 10 -->
    <_>
      <maxWeakCount>12</maxWeakCount>
      <stageThreshold>-1.9212769269943237e+000</stageThreshold>
      <weakClassifiers>
        <_>
          <internalNodes>
            0 -1 160 4.6758815646171570e-002</internalNodes>
          <leafValues>
            -7.4416345357894897e-001 8.5959888994693756e-002</leafValues></_>
        <_>
          <internalNodes>
            0 -1 86 -1.4738317986484617e-005</internalNodes>
          <leafValues>
            2.5006577372550964e-001 -6.3373672962188721e-001</leafValues></_>
        <_>
          <internalNodes>
            0 -1 121 3.0253682052716613e-004</internalNodes>
          <leafValues>
            -8.4866786003112793e-001 1.8502108752727509e-001</leafValues></_>
        <_>
          <internalNodes>
            0 -1 151 -2.8603496029973030e-003</internalNodes>
          <leafValues>
            3.9657533168792725e-001 -4.5128691196441650e-001</leafValues></_>
        <_>
          <internalNodes>
            0 -1 146 -6.5244952565990388e-005</internalNodes>
          <leafValues>
            2.9086291790008545e-001 -5.0787103176116943e-001</leafValues></_>
        <_>
          <internalNodes>
            0 -1 136 7.8071991447359324e-004</internalNodes>
          <leafValues>
            -5.1322537660598755e-001 2.8973531723022461e-001</leafValues></_>
        <_>
          <internalNodes>
            0 -1 104 -7.0060009602457285e-004</internalNodes>
          <leafValues>
            -7.2687768936157227e-001 1.7194274067878723e-001</leafValues></_>
        <_>
          <internalNodes>
            0 -1 180 5.9399497695267200e-004</internalNodes>
          <leafValues>
            1.5047447383403778e-001 -6.9824296236038208e-001</leafValues></_>
        <_>
          <internalNodes>
            0 -1 60 -5.4462980479001999e-003</internalNodes>
          <leafValues>
            4.8605078458786011e-001 -2.8484982252120972e-001</leafValues></_>
        <_>
          <internalNodes>
            0 -1 123 -1.3145081175025553e-004</internalNodes>
          <leafValues>
            1.3924555480480194e-001 -8.5304039716720581e-001</leafValues></_>
        <_>
          <internalNodes>
            0 -1 96 -5.4389622528105974e-004</internalNodes>
          <leafValues>
            -7.1244227886199951e-001 1.4405170083045959e-001</leafValues></_>
        <_>
          <internalNodes>
            0 -1 169 -2.7621414046734571e-003</internalNodes>
          <leafValues>
            4.4892475008964539e-001 -2.7975332736968994e-001</leafValues></_></weakClassifiers></_>
    <!-- stage 11 -->
    <_>
      <maxWeakCount>13</maxWeakCount>
      <stageThreshold>-2.1359777450561523e+000</stageThreshold>
      <weakClassifiers>
        <_>
          <internalNodes>
            0 -1 140 -9.7996648401021957e-004</internalNodes>
          <leafValues>
            1.4620567858219147e-001 -6.5459382534027100e-001</leafValues></_>
        <_>
          <internalNodes>
            0 -1 27 -1.3452930748462677e-001</internalNodes>
          <leafValues>
            4.7068178653717041e-001 -4.5969304442405701e-001</leafValues></_>
        <_>
          <internalNodes>
            0 -1 159 -1.8652124330401421e-002</internalNodes>
          <leafValues>
            2.6885840296745300e-001 -5.6741869449615479e-001</leafValues></_>
        <_>
          <internalNodes>
            0 -1 39 1.3647298328578472e-003</internalNodes>
          <leafValues>
            -5.3221410512924194e-001 2.6418039202690125e-001</leafValues></_>
        <_>
          <internalNodes>
            0 -1 66 3.6803600378334522e-003</internalNodes>
          <leafValues>
            1.8304111063480377e-001 -8.0136519670486450e-001</leafValues></_>
        <_>
          <internalNodes>
            0 -1 108 1.4658553482149728e-005</internalNodes>
          <leafValues>
            -5.9956997632980347e-001 2.3196765780448914e-001</leafValues></_>
        <_>
          <internalNodes>
            0 -1 124 3.8743595359846950e-004</internalNodes>
          <leafValues>
            -6.7576259374618530e-001 1.8120463192462921e-001</leafValues></_>
        <_>
          <internalNodes>
            0 -1 8 4.9159326590597630e-004</internalNodes>
          <leafValues>
            1.4160616695880890e-001 -7.4348056316375732e-001</leafValues></_>
        <_>
          <internalNodes>
            0 -1 63 -1.6148809663718566e-005</internalNodes>
          <leafValues>
            2.8061854839324951e-001 -4.2530098557472229e-001</leafValues></_>
        <_>
          <internalNodes>
            0 -1 47 7.5513578485697508e-004</internalNodes>
          <leafValues>
            1.2772503495216370e-001 -7.5641715526580811e-001</leafValues></_>
        <_>
          <internalNodes>
            0 -1 163 8.9813191443681717e-003</internalNodes>
          <leafValues>
            -7.9400753974914551e-001 1.2521162629127502e-001</leafValues></_>
        <_>
          <internalNodes>
            0 -1 20 2.2793639800511301e-004</internalNodes>
          <leafValues>
            1.6189023852348328e-001 -6.3491791486740112e-001</leafValues></_>
        <_>
          <internalNodes>
            0 -1 10 -1.2388610048219562e-003</internalNodes>
          <leafValues>
            -6.1680227518081665e-001 1.8213412165641785e-001</leafValues></_></weakClassifiers></_>
    <!-- stage 12 -->
    <_>
      <maxWeakCount>12</maxWeakCount>
      <stageThreshold>-1.8576315641403198e+000</stageThreshold>
      <weakClassifiers>
        <_>
          <internalNodes>
            0 -1 85 -1.5284425899153575e-005</internalNodes>
          <leafValues>
            3.4674659371376038e-002 -7.8886437416076660e-001</leafValues></_>
        <_>
          <internalNodes>
            0 -1 59 -4.4881487265229225e-003</internalNodes>
          <leafValues>
            3.3898735046386719e-001 -4.9072498083114624e-001</leafValues></_>
        <_>
          <internalNodes>
            0 -1 168 5.3615979850292206e-003</internalNodes>
          <leafValues>
            -4.1292572021484375e-001 3.9276069402694702e-001</leafValues></_>
        <_>
          <internalNodes>
            0 -1 72 -5.1669031381607056e-003</internalNodes>
          <leafValues>
            -8.2203215360641479e-001 1.7226725816726685e-001</leafValues></_>
        <_>
          <internalNodes>
            0 -1 92 2.3305771173909307e-004</internalNodes>
          <leafValues>
            -5.3592967987060547e-001 3.0638414621353149e-001</leafValues></_>
        <_>
          <internalNodes>
            0 -1 114 7.4489577673375607e-004</internalNodes>
          <leafValues>
            1.8096302449703217e-001 -7.9724597930908203e-001</leafValues></_>
        <_>
          <internalNodes>
            0 -1 100 1.2180466204881668e-002</internalNodes>
          <leafValues>
            1.1169498413801193e-001 -7.9868978261947632e-001</leafValues></_>
        <_>
          <internalNodes>
            0 -1 133 -7.0224907249212265e-003</internalNodes>
          <leafValues>
            3.3748957514762878e-001 -3.8924297690391541e-001</leafValues></_>
        <_>
          <internalNodes>
            0 -1 6 2.8029797598719597e-002</internalNodes>
          <leafValues>
            -2.8098362684249878e-001 4.9256399273872375e-001</leafValues></_>
        <_>
          <internalNodes>
            0 -1 76 1.1904516723006964e-003</internalNodes>
          <leafValues>
            1.6372582316398621e-001 -7.5500613451004028e-001</leafValues></_>
        <_>
          <internalNodes>
            0 -1 139 -1.2553909327834845e-003</internalNodes>
          <leafValues>
            3.0103820562362671e-001 -3.8342830538749695e-001</leafValues></_>
        <_>
          <internalNodes>
            0 -1 143 4.7200103290379047e-004</internalNodes>
          <leafValues>
            1.3715529441833496e-001 -7.4545401334762573e-001</leafValues></_></weakClassifiers></_>
    <!-- stage 13 -->
    <_>
      <maxWeakCount>17</maxWeakCount>
      <stageThreshold>-2.0877709388732910e+000</stageThreshold>
      <weakClassifiers>
        <_>
          <internalNodes>
            0 -1 155 -3.2460435759276152e-003</internalNodes>
          <leafValues>
            1.9062180817127228e-001 -6.0873621702194214e-001</leafValues></_>
        <_>
          <internalNodes>
            0 -1 11 -2.7837944217026234e-003</internalNodes>
          <leafValues>
            2.8278663754463196e-001 -5.1367723941802979e-001</leafValues></_>
        <_>
          <internalNodes>
            0 -1 5 -4.1230339556932449e-003</internalNodes>
          <leafValues>
            3.8674983382225037e-001 -3.5322535037994385e-001</leafValues></_>
        <_>
          <internalNodes>
            0 -1 93 -1.1881804311997257e-005</internalNodes>
          <leafValues>
            3.0970242619514465e-001 -4.5675772428512573e-001</leafValues></_>
        <_>
          <internalNodes>
            0 -1 73 2.2953776351641864e-005</internalNodes>
          <leafValues>
            -4.7053080797195435e-001 2.9648301005363464e-001</leafValues></_>
        <_>
          <internalNodes>
            0 -1 65 1.8239597976207733e-001</internalNodes>
          <leafValues>
            -2.5458061695098877e-001 5.2578806877136230e-001</leafValues></_>
        <_>
          <internalNodes>
            0 -1 113 -9.9748093634843826e-004</internalNodes>
          <leafValues>
            2.7166262269020081e-001 -4.5207262039184570e-001</leafValues></_>
        <_>
          <internalNodes>
            0 -1 64 5.2349152974784374e-004</internalNodes>
          <leafValues>
            1.7593273520469666e-001 -7.4711060523986816e-001</leafValues></_>
        <_>
          <internalNodes>
            0 -1 128 -7.9900277778506279e-003</internalNodes>
          <leafValues>
            -8.2491612434387207e-001 1.0258486866950989e-001</leafValues></_>
        <_>
          <internalNodes>
            0 -1 118 -1.0757318232208490e-003</internalNodes>
          <leafValues>
            -7.8683042526245117e-001 1.2959189713001251e-001</leafValues></_>
        <_>
          <internalNodes>
            0 -1 165 -1.2859996408224106e-002</internalNodes>
          <leafValues>
            2.2879223525524139e-001 -4.6254387497901917e-001</leafValues></_>
        <_>
          <internalNodes>
            0 -1 74 -4.9260654486715794e-004</internalNodes>
          <leafValues>
            -7.9183799028396606e-001 1.0476095229387283e-001</leafValues></_>
        <_>
          <internalNodes>
            0 -1 105 -8.0643052933737636e-004</internalNodes>
          <leafValues>
            1.9025984406471252e-001 -5.3737694025039673e-001</leafValues></_>
        <_>
          <internalNodes>
            0 -1 109 1.2768075976055115e-004</internalNodes>
          <leafValues>
            -4.2186233401298523e-001 2.4790766835212708e-001</leafValues></_>
        <_>
          <internalNodes>
            0 -1 15 4.8243947094306350e-004</internalNodes>
          <leafValues>
            1.4769047498703003e-001 -7.7567327022552490e-001</leafValues></_>
        <_>
          <internalNodes>
            0 -1 34 -1.5630837529897690e-002</internalNodes>
          <leafValues>
            1.9276128709316254e-001 -5.2616542577743530e-001</leafValues></_>
        <_>
          <internalNodes>
            0 -1 176 1.2847913894802332e-003</internalNodes>
          <leafValues>
            1.5348680317401886e-001 -6.5955740213394165e-001</leafValues></_></weakClassifiers></_>
    <!-- stage 14 -->
    <_>
      <maxWeakCount>15</maxWeakCount>
      <stageThreshold>-1.7966467142105103e+000</stageThreshold>
      <weakClassifiers>
        <_>
          <internalNodes>
            0 -1 86 -1.4975247722759377e-005</internalNodes>
          <leafValues>
            -1.6453381627798080e-002 -7.7554041147232056e-001</leafValues></_>
        <_>
          <internalNodes>
            0 -1 51 -5.7008462026715279e-003</internalNodes>
          <leafValues>
            3.3976733684539795e-001 -4.4533970952033997e-001</leafValues></_>
        <_>
          <internalNodes>
            0 -1 130 1.3427642988972366e-004</internalNodes>
          <leafValues>
            -5.1463645696640015e-001 2.5555050373077393e-001</leafValues></_>
        <_>
          <internalNodes>
            0 -1 134 -2.1174410358071327e-003</internalNodes>
          <leafValues>
            2.2933356463909149e-001 -6.4468073844909668e-001</leafValues></_>
        <_>
          <internalNodes>
            0 -1 174 6.4216274768114090e-003</internalNodes>
          <leafValues>
            1.8621921539306641e-001 -6.5687090158462524e-001</leafValues></_>
        <_>
          <internalNodes>
            0 -1 36 -4.8504061996936798e-003</internalNodes>
          <leafValues>
            1.3964617252349854e-001 -7.7029824256896973e-001</leafValues></_>
        <_>
          <internalNodes>
            0 -1 58 1.2187651591375470e-003</internalNodes>
          <leafValues>
            1.3388356566429138e-001 -7.8898113965988159e-001</leafValues></_>
        <_>
          <internalNodes>
            0 -1 170 6.8179692789271940e-006</internalNodes>
          <leafValues>
            -5.1206940412521362e-001 2.0775683224201202e-001</leafValues></_>
        <_>
          <internalNodes>
            0 -1 46 -6.4598012249916792e-004</internalNodes>
          <leafValues>
            -6.8980658054351807e-001 1.4493918418884277e-001</leafValues></_>
        <_>
          <internalNodes>
            0 -1 50 -7.3362234979867935e-004</internalNodes>
          <leafValues>
            3.1119802594184875e-001 -3.8235664367675781e-001</leafValues></_>
        <_>
          <internalNodes>
            0 -1 42 1.2191206216812134e-002</internalNodes>
          <leafValues>
            -1.7153547704219818e-001 6.7070549726486206e-001</leafValues></_>
        <_>
          <internalNodes>
            0 -1 70 4.2002443224191666e-003</internalNodes>
          <leafValues>
            1.4515955746173859e-001 -7.9940271377563477e-001</leafValues></_>
        <_>
          <internalNodes>
            0 -1 84 -2.5774426758289337e-003</internalNodes>
          <leafValues>
            -7.2540092468261719e-001 1.4097794890403748e-001</leafValues></_>
        <_>
          <internalNodes>
            0 -1 3 4.5897057279944420e-003</internalNodes>
          <leafValues>
            1.2278886884450912e-001 -6.1010169982910156e-001</leafValues></_>
        <_>
          <internalNodes>
            0 -1 101 2.3105056025087833e-003</internalNodes>
          <leafValues>
            1.1486256867647171e-001 -7.8282809257507324e-001</leafValues></_></weakClassifiers></_>
    <!-- stage 15 -->
    <_>
      <maxWeakCount>16</maxWeakCount>
      <stageThreshold>-1.7821671962738037e+000</stageThreshold>
      <weakClassifiers>
        <_>
          <internalNodes>
            0 -1 142 4.3520005419850349e-004</internalNodes>
          <leafValues>
            -5.3689241409301758e-001 3.3037036657333374e-001</leafValues></_>
        <_>
          <internalNodes>
            0 -1 154 -3.1248279847204685e-003</internalNodes>
          <leafValues>
            2.7050963044166565e-001 -5.9285253286361694e-001</leafValues></_>
        <_>
          <internalNodes>
            0 -1 17 -2.7731651789508760e-004</internalNodes>
          <leafValues>
            2.9863351583480835e-001 -4.3779632449150085e-001</leafValues></_>
        <_>
          <internalNodes>
            0 -1 21 8.6661800742149353e-003</internalNodes>
          <leafValues>
            -3.0622673034667969e-001 3.8360315561294556e-001</leafValues></_>
        <_>
          <internalNodes>
            0 -1 144 3.0564330518245697e-004</internalNodes>
          <leafValues>
            -7.7005183696746826e-001 1.7334672808647156e-001</leafValues></_>
        <_>
          <internalNodes>
            0 -1 138 2.1600108593702316e-003</internalNodes>
          <leafValues>
            -4.3621209263801575e-001 2.2676189243793488e-001</leafValues></_>
        <_>
          <internalNodes>
            0 -1 107 -9.2298025265336037e-004</internalNodes>
          <leafValues>
            -6.8147897720336914e-001 1.4726251363754272e-001</leafValues></_>
        <_>
          <internalNodes>
            0 -1 149 -4.6539836330339313e-004</internalNodes>
          <leafValues>
            2.5076878070831299e-001 -3.8137805461883545e-001</leafValues></_>
        <_>
          <internalNodes>
            0 -1 45 1.0633501224219799e-003</internalNodes>
          <leafValues>
            1.6822524368762970e-001 -6.5931206941604614e-001</leafValues></_>
        <_>
          <internalNodes>
            0 -1 173 -3.1797785777598619e-004</internalNodes>
          <leafValues>
            -8.0560153722763062e-001 1.0827703028917313e-001</leafValues></_>
        <_>
          <internalNodes>
            0 -1 48 -1.1013469193130732e-003</internalNodes>
          <leafValues>
            8.3688065409660339e-002 -8.6620903015136719e-001</leafValues></_>
        <_>
          <internalNodes>
            0 -1 38 -3.4040972590446472e-002</internalNodes>
          <leafValues>
            5.9033107757568359e-001 -1.8215289711952209e-001</leafValues></_>
        <_>
          <internalNodes>
            0 -1 62 6.4885977189987898e-004</internalNodes>
          <leafValues>
            -3.9343342185020447e-001 2.6752915978431702e-001</leafValues></_>
        <_>
          <internalNodes>
            0 -1 119 1.5564669156447053e-003</internalNodes>
          <leafValues>
            1.2732633948326111e-001 -7.8124225139617920e-001</leafValues></_>
        <_>
          <internalNodes>
            0 -1 150 -1.3646620791405439e-003</internalNodes>
          <leafValues>
            1.7728145420551300e-001 -4.6465966105461121e-001</leafValues></_>
        <_>
          <internalNodes>
            0 -1 57 1.0120230726897717e-003</internalNodes>
          <leafValues>
            1.1281761527061462e-001 -7.7281862497329712e-001</leafValues></_></weakClassifiers></_>
    <!-- stage 16 -->
    <_>
      <maxWeakCount>16</maxWeakCount>
      <stageThreshold>-1.8686544895172119e+000</stageThreshold>
      <weakClassifiers>
        <_>
          <internalNodes>
            0 -1 68 -3.4153442829847336e-003</internalNodes>
          <leafValues>
            1.5974332392215729e-001 -5.9430605173110962e-001</leafValues></_>
        <_>
          <internalNodes>
            0 -1 90 -6.1769228523189668e-006</internalNodes>
          <leafValues>
            2.1160881221294403e-001 -5.8896523714065552e-001</leafValues></_>
        <_>
          <internalNodes>
            0 -1 22 -8.4516359493136406e-003</internalNodes>
          <leafValues>
            2.7192297577857971e-001 -4.7783508896827698e-001</leafValues></_>
        <_>
          <internalNodes>
            0 -1 129 9.5028191572055221e-004</internalNodes>
          <leafValues>
            -5.2592128515243530e-001 2.7785998582839966e-001</leafValues></_>
        <_>
          <internalNodes>
            0 -1 167 -4.5749209821224213e-003</internalNodes>
          <leafValues>
            1.1313990503549576e-001 -7.6713889837265015e-001</leafValues></_>
        <_>
          <internalNodes>
            0 -1 177 -2.2586998529732227e-003</internalNodes>
          <leafValues>
            -4.9935653805732727e-001 2.3584602773189545e-001</leafValues></_>
        <_>
          <internalNodes>
            0 -1 30 3.3307719230651855e-001</internalNodes>
          <leafValues>
            -2.0903596282005310e-001 5.6125426292419434e-001</leafValues></_>
        <_>
          <internalNodes>
            0 -1 69 8.9716557413339615e-003</internalNodes>
          <leafValues>
            -1.5657491981983185e-001 7.8484749794006348e-001</leafValues></_>
        <_>
          <internalNodes>
            0 -1 120 -7.9369696322828531e-004</internalNodes>
          <leafValues>
            4.5936161279678345e-001 -2.1031373739242554e-001</leafValues></_>
        <_>
          <internalNodes>
            0 -1 84 1.7505569849163294e-003</internalNodes>
          <leafValues>
            1.6230154037475586e-001 -7.5552952289581299e-001</leafValues></_>
        <_>
          <internalNodes>
            0 -1 147 -1.0964142711600289e-004</internalNodes>
          <leafValues>
            2.0472776889801025e-001 -4.2381352186203003e-001</leafValues></_>
        <_>
          <internalNodes>
            0 -1 56 -7.3459115810692310e-004</internalNodes>
          <leafValues>
            2.1965222060680389e-001 -4.5901516079902649e-001</leafValues></_>
        <_>
          <internalNodes>
            0 -1 172 5.5549154058098793e-004</internalNodes>
          <leafValues>
            1.2283853441476822e-001 -6.9452011585235596e-001</leafValues></_>
        <_>
          <internalNodes>
            0 -1 54 -7.8930432209745049e-004</internalNodes>
          <leafValues>
            -7.2061020135879517e-001 1.1687312275171280e-001</leafValues></_>
        <_>
          <internalNodes>
            0 -1 71 -2.8893817216157913e-003</internalNodes>
          <leafValues>
            4.7732612490653992e-001 -2.1745246648788452e-001</leafValues></_>
        <_>
          <internalNodes>
            0 -1 31 3.0999433994293213e-001</internalNodes>
          <leafValues>
            -1.8874277174472809e-001 5.0081771612167358e-001</leafValues></_></weakClassifiers></_>
    <!-- stage 17 -->
    <_>
      <maxWeakCount>19</maxWeakCount>
      <stageThreshold>-1.8833769559860229e+000</stageThreshold>
      <weakClassifiers>
        <_>
          <internalNodes>
            0 -1 91 -3.9261719211935997e-004</internalNodes>
          <leafValues>
            2.5322740897536278e-002 -6.5589886903762817e-001</leafValues></_>
        <_>
          <internalNodes>
            0 -1 135 -3.5770512185990810e-003</internalNodes>
          <leafValues>
            2.2768290340900421e-001 -4.9634566903114319e-001</leafValues></_>
        <_>
          <internalNodes>
            0 -1 141 8.9275737991556525e-005</internalNodes>
          <leafValues>
            -4.9888107180595398e-001 2.1302232146263123e-001</leafValues></_>
        <_>
          <internalNodes>
            0 -1 25 1.1717034503817558e-002</internalNodes>
          <leafValues>
            -6.9871234893798828e-001 1.7375156283378601e-001</leafValues></_>
        <_>
          <internalNodes>
            0 -1 0 5.3139813244342804e-003</internalNodes>
          <leafValues>
            2.2738246619701385e-001 -5.0115114450454712e-001</leafValues></_>
        <_>
          <internalNodes>
            0 -1 32 -9.9455401301383972e-002</internalNodes>
          <leafValues>
            4.3716755509376526e-001 -2.5964742898941040e-001</leafValues></_>
        <_>
          <internalNodes>
            0 -1 77 -6.8211338657420129e-006</internalNodes>
          <leafValues>
            1.9530875980854034e-001 -5.7650363445281982e-001</leafValues></_>
        <_>
          <internalNodes>
            0 -1 49 -1.6115508042275906e-003</internalNodes>
          <leafValues>
            2.7863541245460510e-001 -3.5436296463012695e-001</leafValues></_>
        <_>
          <internalNodes>
            0 -1 37 1.3255670666694641e-002</internalNodes>
          <leafValues>
            -1.8842729926109314e-001 5.6832629442214966e-001</leafValues></_>
        <_>
          <internalNodes>
            0 -1 117 6.7258730996400118e-004</internalNodes>
          <leafValues>
            1.6382923722267151e-001 -7.8118324279785156e-001</leafValues></_>
        <_>
          <internalNodes>
            0 -1 181 -7.4908981332555413e-004</internalNodes>
          <leafValues>
            -5.7609444856643677e-001 1.2436252832412720e-001</leafValues></_>
        <_>
          <internalNodes>
            0 -1 162 3.0519878491759300e-003</internalNodes>
          <leafValues>
            -7.0390802621841431e-001 1.1904256045818329e-001</leafValues></_>
        <_>
          <internalNodes>
            0 -1 127 4.0714489296078682e-003</internalNodes>
          <leafValues>
            1.2065506726503372e-001 -7.1652406454086304e-001</leafValues></_>
        <_>
          <internalNodes>
            0 -1 164 -5.6769805960357189e-003</internalNodes>
          <leafValues>
            3.3594781160354614e-001 -2.8149369359016418e-001</leafValues></_>
        <_>
          <internalNodes>
            0 -1 82 -5.2523083286359906e-004</internalNodes>
          <leafValues>
            -6.2180513143539429e-001 1.7065453529357910e-001</leafValues></_>
        <_>
          <internalNodes>
            0 -1 55 4.9496446736156940e-003</internalNodes>
          <leafValues>
            -1.4119428396224976e-001 6.8751525878906250e-001</leafValues></_>
        <_>
          <internalNodes>
            0 -1 171 -1.2553341221064329e-003</internalNodes>
          <leafValues>
            -6.0187929868698120e-001 1.4433524012565613e-001</leafValues></_>
        <_>
          <internalNodes>
            0 -1 88 1.1215537961106747e-004</internalNodes>
          <leafValues>
            -3.7495920062065125e-001 2.1559785306453705e-001</leafValues></_>
        <_>
          <internalNodes>
            0 -1 19 -1.4405078218260314e-005</internalNodes>
          <leafValues>
            1.8818493187427521e-001 -4.4644853472709656e-001</leafValues></_></weakClassifiers></_></stages>
  <features>
    <_>
      <rects>
        <_>
          0 0 1 32 -1.</_>
        <_>
          0 8 1 16 2.</_></rects>
      <tilted>0</tilted></_>
    <_>
      <rects>
        <_>
          0 1 8 22 -1.</_>
        <_>
          0 1 4 11 2.</_>
        <_>
          4 12 4 11 2.</_></rects>
      <tilted>0</tilted></_>
    <_>
      <rects>
        <_>
          0 1 10 22 -1.</_>
        <_>
          0 1 5 11 2.</_>
        <_>
          5 12 5 11 2.</_></rects>
      <tilted>0</tilted></_>
    <_>
      <rects>
        <_>
          0 2 1 20 -1.</_>
        <_>
          0 12 1 10 2.</_></rects>
      <tilted>0</tilted></_>
    <_>
      <rects>
        <_>
          0 2 32 6 -1.</_>
        <_>
          8 2 16 6 2.</_></rects>
      <tilted>0</tilted></_>
    <_>
      <rects>
        <_>
          0 6 15 3 -1.</_>
        <_>
          5 6 5 3 3.</_></rects>
      <tilted>0</tilted></_>
    <_>
      <rects>
        <_>
          0 9 6 20 -1.</_>
        <_>
          3 9 3 20 2.</_></rects>
      <tilted>0</tilted></_>
    <_>
      <rects>
        <_>
          0 10 6 15 -1.</_>
        <_>
          3 10 3 15 2.</_></rects>
      <tilted>0</tilted></_>
    <_>
      <rects>
        <_>
          0 13 1 12 -1.</_>
        <_>
          0 19 1 6 2.</_></rects>
      <tilted>0</tilted></_>
    <_>
      <rects>
        <_>
          0 14 4 18 -1.</_>
        <_>
          0 14 2 9 2.</_>
        <_>
          2 23 2 9 2.</_></rects>
      <tilted>0</tilted></_>
    <_>
      <rects>
        <_>
          0 16 1 12 -1.</_>
        <_>
          0 20 1 4 3.</_></rects>
      <tilted>0</tilted></_>
    <_>
      <rects>
        <_>
          0 16 4 16 -1.</_>
        <_>
          0 16 2 8 2.</_>
        <_>
          2 24 2 8 2.</_></rects>
      <tilted>0</tilted></_>
    <_>
      <rects>
        <_>
          0 18 7 14 -1.</_>
        <_>
          0 25 7 7 2.</_></rects>
      <tilted>0</tilted></_>
    <_>
      <rects>
        <_>
          0 19 1 12 -1.</_>
        <_>
          0 23 1 4 3.</_></rects>
      <tilted>0</tilted></_>
    <_>
      <rects>
        <_>
          0 22 1 8 -1.</_>
        <_>
          0 26 1 4 2.</_></rects>
      <tilted>0</tilted></_>
    <_>
      <rects>
        <_>
          0 24 1 8 -1.</_>
        <_>
          0 26 1 4 2.</_></rects>
      <tilted>0</tilted></_>
    <_>
      <rects>
        <_>
          0 26 1 6 -1.</_>
        <_>
          0 29 1 3 2.</_></rects>
      <tilted>0</tilted></_>
    <_>
      <rects>
        <_>
          0 29 8 2 -1.</_>
        <_>
          2 29 4 2 2.</_></rects>
      <tilted>0</tilted></_>
    <_>
      <rects>
        <_>
          0 30 3 2 -1.</_>
        <_>
          0 31 3 1 2.</_></rects>
      <tilted>0</tilted></_>
    <_>
      <rects>
        <_>
          0 31 12 1 -1.</_>
        <_>
          3 31 6 1 2.</_></rects>
      <tilted>0</tilted></_>
    <_>
      <rects>
        <_>
          0 31 15 1 -1.</_>
        <_>
          5 31 5 1 3.</_></rects>
      <tilted>0</tilted></_>
    <_>
      <rects>
        <_>
          1 0 6 24 -1.</_>
        <_>
          3 0 2 24 3.</_></rects>
      <tilted>0</tilted></_>
    <_>
      <rects>
        <_>
          1 0 21 6 -1.</_>
        <_>
          8 2 7 2 9.</_></rects>
      <tilted>0</tilted></_>
    <_>
      <rects>
        <_>
          2 2 27 6 -1.</_>
        <_>
          11 2 9 6 3.</_></rects>
      <tilted>0</tilted></_>
    <_>
      <rects>
        <_>
          2 2 27 30 -1.</_>
        <_>
          2 12 27 10 3.</_></rects>
      <tilted>0</tilted></_>
    <_>
      <rects>
        <_>
          2 3 4 28 -1.</_>
        <_>
          2 10 4 14 2.</_></rects>
      <tilted>0</tilted></_>
    <_>
      <rects>
        <_>
          2 18 8 14 -1.</_>
        <_>
          2 25 8 7 2.</_></rects>
      <tilted>0</tilted></_>
    <_>
      <rects>
        <_>
          3 0 25 15 -1.</_>
        <_>
          3 5 25 5 3.</_></rects>
      <tilted>0</tilted></_>
    <_>
      <rects>
        <_>
          3 3 21 23 -1.</_>
        <_>
          10 3 7 23 3.</_></rects>
      <tilted>0</tilted></_>
    <_>
      <rects>
        <_>
          3 4 26 28 -1.</_>
        <_>
          3 11 26 14 2.</_></rects>
      <tilted>0</tilted></_>
    <_>
      <rects>
        <_>
          3 5 25 18 -1.</_>
        <_>
          3 11 25 6 3.</_></rects>
      <tilted>0</tilted></_>
    <_>
      <rects>
        <_>
          3 8 25 24 -1.</_>
        <_>
          3 14 25 12 2.</_></rects>
      <tilted>0</tilted></_>
    <_>
      <rects>
        <_>
          3 12 20 12 -1.</_>
        <_>
          3 18 20 6 2.</_></rects>
      <tilted>0</tilted></_>
    <_>
      <rects>
        <_>
          4 7 21 15 -1.</_>
        <_>
          4 12 21 5 3.</_></rects>
      <tilted>0</tilted></_>
    <_>
      <rects>
        <_>
          5 0 24 9 -1.</_>
        <_>
          13 3 8 3 9.</_></rects>
      <tilted>0</tilted></_>
    <_>
      <rects>
        <_>
          5 6 21 18 -1.</_>
        <_>
          5 12 21 6 3.</_></rects>
      <tilted>0</tilted></_>
    <_>
      <rects>
        <_>
          5 18 2 14 -1.</_>
        <_>
          5 25 2 7 2.</_></rects>
      <tilted>0</tilted></_>
    <_>
      <rects>
        <_>
          5 23 18 4 -1.</_>
        <_>
          5 24 18 2 2.</_></rects>
      <tilted>0</tilted></_>
    <_>
      <rects>
        <_>
          6 8 19 6 -1.</_>
        <_>
          6 10 19 2 3.</_></rects>
      <tilted>0</tilted></_>
    <_>
      <rects>
        <_>
          6 21 10 10 -1.</_>
        <_>
          6 21 5 5 2.</_>
        <_>
          11 26 5 5 2.</_></rects>
      <tilted>0</tilted></_>
    <_>
      <rects>
        <_>
          7 6 19 18 -1.</_>
        <_>
          7 12 19 6 3.</_></rects>
      <tilted>0</tilted></_>
    <_>
      <rects>
        <_>
          7 22 10 8 -1.</_>
        <_>
          7 22 5 4 2.</_>
        <_>
          12 26 5 4 2.</_></rects>
      <tilted>0</tilted></_>
    <_>
      <rects>
        <_>
          7 23 18 4 -1.</_>
        <_>
          7 24 18 2 2.</_></rects>
      <tilted>0</tilted></_>
    <_>
      <rects>
        <_>
          7 26 8 6 -1.</_>
        <_>
          7 29 8 3 2.</_></rects>
      <tilted>0</tilted></_>
    <_>
      <rects>
        <_>
          8 1 24 6 -1.</_>
        <_>
          16 3 8 2 9.</_></rects>
      <tilted>0</tilted></_>
    <_>
      <rects>
        <_>
          8 12 8 3 -1.</_>
        <_>
          10 12 4 3 2.</_></rects>
      <tilted>0</tilted></_>
    <_>
      <rects>
        <_>
          8 14 9 1 -1.</_>
        <_>
          11 14 3 1 3.</_></rects>
      <tilted>0</tilted></_>
    <_>
      <rects>
        <_>
          8 15 9 1 -1.</_>
        <_>
          11 15 3 1 3.</_></rects>
      <tilted>0</tilted></_>
    <_>
      <rects>
        <_>
          8 20 3 12 -1.</_>
        <_>
          8 26 3 6 2.</_></rects>
      <tilted>0</tilted></_>
    <_>
      <rects>
        <_>
          8 21 6 8 -1.</_>
        <_>
          10 21 2 8 3.</_></rects>
      <tilted>0</tilted></_>
    <_>
      <rects>
        <_>
          8 26 6 3 -1.</_>
        <_>
          10 26 2 3 3.</_></rects>
      <tilted>0</tilted></_>
    <_>
      <rects>
        <_>
          9 13 8 6 -1.</_>
        <_>
          7 15 8 2 3.</_></rects>
      <tilted>1</tilted></_>
    <_>
      <rects>
        <_>
          9 14 12 3 -1.</_>
        <_>
          13 14 4 3 3.</_></rects>
      <tilted>0</tilted></_>
    <_>
      <rects>
        <_>
          9 15 8 2 -1.</_>
        <_>
          11 15 4 2 2.</_></rects>
      <tilted>0</tilted></_>
    <_>
      <rects>
        <_>
          9 16 9 1 -1.</_>
        <_>
          12 16 3 1 3.</_></rects>
      <tilted>0</tilted></_>
    <_>
      <rects>
        <_>
          9 28 13 3 -1.</_>
        <_>
          9 29 13 1 3.</_></rects>
      <tilted>0</tilted></_>
    <_>
      <rects>
        <_>
          10 3 21 1 -1.</_>
        <_>
          17 3 7 1 3.</_></rects>
      <tilted>0</tilted></_>
    <_>
      <rects>
        <_>
          10 12 12 1 -1.</_>
        <_>
          13 12 6 1 2.</_></rects>
      <tilted>0</tilted></_>
    <_>
      <rects>
        <_>
          10 15 8 3 -1.</_>
        <_>
          12 15 4 3 2.</_></rects>
      <tilted>0</tilted></_>
    <_>
      <rects>
        <_>
          10 15 4 12 -1.</_>
        <_>
          10 18 4 6 2.</_></rects>
      <tilted>0</tilted></_>
    <_>
      <rects>
        <_>
          10 21 18 4 -1.</_>
        <_>
          10 22 18 2 2.</_></rects>
      <tilted>0</tilted></_>
    <_>
      <rects>
        <_>
          10 23 4 6 -1.</_>
        <_>
          10 23 2 3 2.</_>
        <_>
          12 26 2 3 2.</_></rects>
      <tilted>0</tilted></_>
    <_>
      <rects>
        <_>
          10 24 6 4 -1.</_>
        <_>
          10 24 3 2 2.</_>
        <_>
          13 26 3 2 2.</_></rects>
      <tilted>0</tilted></_>
    <_>
      <rects>
        <_>
          10 28 3 1 -1.</_>
        <_>
          11 28 1 1 3.</_></rects>
      <tilted>0</tilted></_>
    <_>
      <rects>
        <_>
          10 31 9 1 -1.</_>
        <_>
          13 31 3 1 3.</_></rects>
      <tilted>0</tilted></_>
    <_>
      <rects>
        <_>
          11 6 13 18 -1.</_>
        <_>
          11 12 13 6 3.</_></rects>
      <tilted>0</tilted></_>
    <_>
      <rects>
        <_>
          11 10 15 3 -1.</_>
        <_>
          16 10 5 3 3.</_></rects>
      <tilted>0</tilted></_>
    <_>
      <rects>
        <_>
          11 15 9 3 -1.</_>
        <_>
          14 15 3 3 3.</_></rects>
      <tilted>0</tilted></_>
    <_>
      <rects>
        <_>
          11 17 7 4 -1.</_>
        <_>
          10 18 7 2 2.</_></rects>
      <tilted>1</tilted></_>
    <_>
      <rects>
        <_>
          11 23 11 3 -1.</_>
        <_>
          11 24 11 1 3.</_></rects>
      <tilted>0</tilted></_>
    <_>
      <rects>
        <_>
          11 24 10 6 -1.</_>
        <_>
          11 24 5 3 2.</_>
        <_>
          16 27 5 3 2.</_></rects>
      <tilted>0</tilted></_>
    <_>
      <rects>
        <_>
          11 24 10 3 -1.</_>
        <_>
          11 25 10 1 3.</_></rects>
      <tilted>0</tilted></_>
    <_>
      <rects>
        <_>
          11 26 10 6 -1.</_>
        <_>
          16 26 5 6 2.</_></rects>
      <tilted>0</tilted></_>
    <_>
      <rects>
        <_>
          11 27 6 1 -1.</_>
        <_>
          14 27 3 1 2.</_></rects>
      <tilted>0</tilted></_>
    <_>
      <rects>
        <_>
          11 30 6 2 -1.</_>
        <_>
          13 30 2 2 3.</_></rects>
      <tilted>0</tilted></_>
    <_>
      <rects>
        <_>
          11 30 9 2 -1.</_>
        <_>
          14 30 3 2 3.</_></rects>
      <tilted>0</tilted></_>
    <_>
      <rects>
        <_>
          12 15 12 1 -1.</_>
        <_>
          16 15 4 1 3.</_></rects>
      <tilted>0</tilted></_>
    <_>
      <rects>
        <_>
          12 26 7 2 -1.</_>
        <_>
          12 27 7 1 2.</_></rects>
      <tilted>0</tilted></_>
    <_>
      <rects>
        <_>
          12 26 14 6 -1.</_>
        <_>
          12 29 14 3 2.</_></rects>
      <tilted>0</tilted></_>
    <_>
      <rects>
        <_>
          12 27 3 1 -1.</_>
        <_>
          13 27 1 1 3.</_></rects>
      <tilted>0</tilted></_>
    <_>
      <rects>
        <_>
          12 27 8 2 -1.</_>
        <_>
          12 28 8 1 2.</_></rects>
      <tilted>0</tilted></_>
    <_>
      <rects>
        <_>
          12 27 8 3 -1.</_>
        <_>
          12 28 8 1 3.</_></rects>
      <tilted>0</tilted></_>
    <_>
      <rects>
        <_>
          12 31 12 1 -1.</_>
        <_>
          16 31 4 1 3.</_></rects>
      <tilted>0</tilted></_>
    <_>
      <rects>
        <_>
          13 14 9 2 -1.</_>
        <_>
          16 14 3 2 3.</_></rects>
      <tilted>0</tilted></_>
    <_>
      <rects>
        <_>
          13 24 6 8 -1.</_>
        <_>
          13 24 3 4 2.</_>
        <_>
          16 28 3 4 2.</_></rects>
      <tilted>0</tilted></_>
    <_>
      <rects>
        <_>
          13 25 2 7 -1.</_>
        <_>
          14 25 1 7 2.</_></rects>
      <tilted>0</tilted></_>
    <_>
      <rects>
        <_>
          13 26 2 1 -1.</_>
        <_>
          14 26 1 1 2.</_></rects>
      <tilted>0</tilted></_>
    <_>
      <rects>
        <_>
          13 26 3 1 -1.</_>
        <_>
          14 26 1 1 3.</_></rects>
      <tilted>0</tilted></_>
    <_>
      <rects>
        <_>
          13 26 1 3 -1.</_>
        <_>
          13 27 1 1 3.</_></rects>
      <tilted>0</tilted></_>
    <_>
      <rects>
        <_>
          13 26 1 3 -1.</_>
        <_>
          12 27 1 1 3.</_></rects>
      <tilted>1</tilted></_>
    <_>
      <rects>
        <_>
          13 26 2 4 -1.</_>
        <_>
          14 26 1 4 2.</_></rects>
      <tilted>0</tilted></_>
    <_>
      <rects>
        <_>
          13 26 3 6 -1.</_>
        <_>
          14 26 1 6 3.</_></rects>
      <tilted>0</tilted></_>
    <_>
      <rects>
        <_>
          13 26 2 3 -1.</_>
        <_>
          13 27 2 1 3.</_></rects>
      <tilted>0</tilted></_>
    <_>
      <rects>
        <_>
          13 27 2 1 -1.</_>
        <_>
          14 27 1 1 2.</_></rects>
      <tilted>0</tilted></_>
    <_>
      <rects>
        <_>
          13 27 6 4 -1.</_>
        <_>
          16 27 3 4 2.</_></rects>
      <tilted>0</tilted></_>
    <_>
      <rects>
        <_>
          13 27 4 3 -1.</_>
        <_>
          13 28 4 1 3.</_></rects>
      <tilted>0</tilted></_>
    <_>
      <rects>
        <_>
          13 28 6 3 -1.</_>
        <_>
          15 28 2 3 3.</_></rects>
      <tilted>0</tilted></_>
    <_>
      <rects>
        <_>
          13 30 9 2 -1.</_>
        <_>
          16 30 3 2 3.</_></rects>
      <tilted>0</tilted></_>
    <_>
      <rects>
        <_>
          13 31 6 1 -1.</_>
        <_>
          16 31 3 1 2.</_></rects>
      <tilted>0</tilted></_>
    <_>
      <rects>
        <_>
          13 31 12 1 -1.</_>
        <_>
          16 31 6 1 2.</_></rects>
      <tilted>0</tilted></_>
    <_>
      <rects>
        <_>
          14 2 14 14 -1.</_>
        <_>
          14 2 7 7 2.</_>
        <_>
          21 9 7 7 2.</_></rects>
      <tilted>0</tilted></_>
    <_>
      <rects>
        <_>
          14 11 12 3 -1.</_>
        <_>
          17 11 6 3 2.</_></rects>
      <tilted>0</tilted></_>
    <_>
      <rects>
        <_>
          14 13 9 3 -1.</_>
        <_>
          17 13 3 3 3.</_></rects>
      <tilted>0</tilted></_>
    <_>
      <rects>
        <_>
          14 15 8 1 -1.</_>
        <_>
          16 15 4 1 2.</_></rects>
      <tilted>0</tilted></_>
    <_>
      <rects>
        <_>
          14 15 8 2 -1.</_>
        <_>
          16 15 4 2 2.</_></rects>
      <tilted>0</tilted></_>
    <_>
      <rects>
        <_>
          14 20 12 12 -1.</_>
        <_>
          14 20 6 6 2.</_>
        <_>
          20 26 6 6 2.</_></rects>
      <tilted>0</tilted></_>
    <_>
      <rects>
        <_>
          14 21 12 10 -1.</_>
        <_>
          14 21 6 5 2.</_>
        <_>
          20 26 6 5 2.</_></rects>
      <tilted>0</tilted></_>
    <_>
      <rects>
        <_>
          14 24 4 7 -1.</_>
        <_>
          16 24 2 7 2.</_></rects>
      <tilted>0</tilted></_>
    <_>
      <rects>
        <_>
          14 25 2 4 -1.</_>
        <_>
          15 25 1 4 2.</_></rects>
      <tilted>0</tilted></_>
    <_>
      <rects>
        <_>
          14 25 3 5 -1.</_>
        <_>
          15 25 1 5 3.</_></rects>
      <tilted>0</tilted></_>
    <_>
      <rects>
        <_>
          14 25 5 2 -1.</_>
        <_>
          14 25 5 1 2.</_></rects>
      <tilted>1</tilted></_>
    <_>
      <rects>
        <_>
          14 26 2 4 -1.</_>
        <_>
          15 26 1 4 2.</_></rects>
      <tilted>0</tilted></_>
    <_>
      <rects>
        <_>
          14 27 2 1 -1.</_>
        <_>
          15 27 1 1 2.</_></rects>
      <tilted>0</tilted></_>
    <_>
      <rects>
        <_>
          14 27 6 3 -1.</_>
        <_>
          16 28 2 1 9.</_></rects>
      <tilted>0</tilted></_>
    <_>
      <rects>
        <_>
          14 28 4 4 -1.</_>
        <_>
          16 28 2 4 2.</_></rects>
      <tilted>0</tilted></_>
    <_>
      <rects>
        <_>
          14 29 6 3 -1.</_>
        <_>
          16 29 2 3 3.</_></rects>
      <tilted>0</tilted></_>
    <_>
      <rects>
        <_>
          14 30 6 2 -1.</_>
        <_>
          16 30 2 2 3.</_></rects>
      <tilted>0</tilted></_>
    <_>
      <rects>
        <_>
          14 31 9 1 -1.</_>
        <_>
          17 31 3 1 3.</_></rects>
      <tilted>0</tilted></_>
    <_>
      <rects>
        <_>
          15 14 8 3 -1.</_>
        <_>
          17 14 4 3 2.</_></rects>
      <tilted>0</tilted></_>
    <_>
      <rects>
        <_>
          15 14 12 1 -1.</_>
        <_>
          19 14 4 1 3.</_></rects>
      <tilted>0</tilted></_>
    <_>
      <rects>
        <_>
          15 23 2 3 -1.</_>
        <_>
          15 24 2 1 3.</_></rects>
      <tilted>0</tilted></_>
    <_>
      <rects>
        <_>
          15 25 5 2 -1.</_>
        <_>
          15 25 5 1 2.</_></rects>
      <tilted>1</tilted></_>
    <_>
      <rects>
        <_>
          15 26 4 3 -1.</_>
        <_>
          15 27 4 1 3.</_></rects>
      <tilted>0</tilted></_>
    <_>
      <rects>
        <_>
          16 22 1 10 -1.</_>
        <_>
          16 27 1 5 2.</_></rects>
      <tilted>0</tilted></_>
    <_>
      <rects>
        <_>
          16 25 2 5 -1.</_>
        <_>
          16 25 1 5 2.</_></rects>
      <tilted>1</tilted></_>
    <_>
      <rects>
        <_>
          16 25 5 2 -1.</_>
        <_>
          16 25 5 1 2.</_></rects>
      <tilted>1</tilted></_>
    <_>
      <rects>
        <_>
          16 26 2 4 -1.</_>
        <_>
          16 26 1 4 2.</_></rects>
      <tilted>1</tilted></_>
    <_>
      <rects>
        <_>
          17 2 6 16 -1.</_>
        <_>
          17 2 3 8 2.</_>
        <_>
          20 10 3 8 2.</_></rects>
      <tilted>0</tilted></_>
    <_>
      <rects>
        <_>
          17 2 6 18 -1.</_>
        <_>
          17 2 3 9 2.</_>
        <_>
          20 11 3 9 2.</_></rects>
      <tilted>0</tilted></_>
    <_>
      <rects>
        <_>
          17 22 2 6 -1.</_>
        <_>
          15 24 2 2 3.</_></rects>
      <tilted>1</tilted></_>
    <_>
      <rects>
        <_>
          17 26 1 3 -1.</_>
        <_>
          17 27 1 1 3.</_></rects>
      <tilted>0</tilted></_>
    <_>
      <rects>
        <_>
          17 26 2 4 -1.</_>
        <_>
          17 26 1 4 2.</_></rects>
      <tilted>1</tilted></_>
    <_>
      <rects>
        <_>
          17 27 1 2 -1.</_>
        <_>
          17 28 1 1 2.</_></rects>
      <tilted>0</tilted></_>
    <_>
      <rects>
        <_>
          18 2 12 9 -1.</_>
        <_>
          22 2 4 9 3.</_></rects>
      <tilted>0</tilted></_>
    <_>
      <rects>
        <_>
          18 4 6 8 -1.</_>
        <_>
          18 4 3 8 2.</_></rects>
      <tilted>1</tilted></_>
    <_>
      <rects>
        <_>
          18 4 12 5 -1.</_>
        <_>
          22 4 4 5 3.</_></rects>
      <tilted>0</tilted></_>
    <_>
      <rects>
        <_>
          18 4 14 1 -1.</_>
        <_>
          25 4 7 1 2.</_></rects>
      <tilted>0</tilted></_>
    <_>
      <rects>
        <_>
          18 5 8 12 -1.</_>
        <_>
          15 8 8 6 2.</_></rects>
      <tilted>1</tilted></_>
    <_>
      <rects>
        <_>
          18 20 8 5 -1.</_>
        <_>
          22 20 4 5 2.</_></rects>
      <tilted>0</tilted></_>
    <_>
      <rects>
        <_>
          18 21 6 8 -1.</_>
        <_>
          20 21 2 8 3.</_></rects>
      <tilted>0</tilted></_>
    <_>
      <rects>
        <_>
          18 24 4 4 -1.</_>
        <_>
          18 24 2 2 2.</_>
        <_>
          20 26 2 2 2.</_></rects>
      <tilted>0</tilted></_>
    <_>
      <rects>
        <_>
          18 26 1 3 -1.</_>
        <_>
          18 27 1 1 3.</_></rects>
      <tilted>0</tilted></_>
    <_>
      <rects>
        <_>
          18 27 3 1 -1.</_>
        <_>
          19 27 1 1 3.</_></rects>
      <tilted>0</tilted></_>
    <_>
      <rects>
        <_>
          19 9 3 6 -1.</_>
        <_>
          20 9 1 6 3.</_></rects>
      <tilted>0</tilted></_>
    <_>
      <rects>
        <_>
          19 25 2 5 -1.</_>
        <_>
          19 25 1 5 2.</_></rects>
      <tilted>1</tilted></_>
    <_>
      <rects>
        <_>
          19 27 4 1 -1.</_>
        <_>
          20 27 2 1 2.</_></rects>
      <tilted>0</tilted></_>
    <_>
      <rects>
        <_>
          19 27 3 2 -1.</_>
        <_>
          20 27 1 2 3.</_></rects>
      <tilted>0</tilted></_>
    <_>
      <rects>
        <_>
          19 27 3 4 -1.</_>
        <_>
          20 27 1 4 3.</_></rects>
      <tilted>0</tilted></_>
    <_>
      <rects>
        <_>
          19 31 6 1 -1.</_>
        <_>
          22 31 3 1 2.</_></rects>
      <tilted>0</tilted></_>
    <_>
      <rects>
        <_>
          20 29 12 2 -1.</_>
        <_>
          23 29 6 2 2.</_></rects>
      <tilted>0</tilted></_>
    <_>
      <rects>
        <_>
          21 0 6 9 -1.</_>
        <_>
          23 3 2 3 9.</_></rects>
      <tilted>0</tilted></_>
    <_>
      <rects>
        <_>
          21 15 6 8 -1.</_>
        <_>
          23 17 2 8 3.</_></rects>
      <tilted>1</tilted></_>
    <_>
      <rects>
        <_>
          21 25 2 5 -1.</_>
        <_>
          21 25 1 5 2.</_></rects>
      <tilted>1</tilted></_>
    <_>
      <rects>
        <_>
          22 4 7 28 -1.</_>
        <_>
          22 11 7 14 2.</_></rects>
      <tilted>0</tilted></_>
    <_>
      <rects>
        <_>
          22 7 5 4 -1.</_>
        <_>
          22 7 5 2 2.</_></rects>
      <tilted>1</tilted></_>
    <_>
      <rects>
        <_>
          22 17 4 6 -1.</_>
        <_>
          23 18 2 6 2.</_></rects>
      <tilted>1</tilted></_>
    <_>
      <rects>
        <_>
          22 18 8 14 -1.</_>
        <_>
          22 25 8 7 2.</_></rects>
      <tilted>0</tilted></_>
    <_>
      <rects>
        <_>
          24 0 8 22 -1.</_>
        <_>
          26 0 4 22 2.</_></rects>
      <tilted>0</tilted></_>
    <_>
      <rects>
        <_>
          24 0 8 22 -1.</_>
        <_>
          24 0 4 11 2.</_>
        <_>
          28 11 4 11 2.</_></rects>
      <tilted>0</tilted></_>
    <_>
      <rects>
        <_>
          24 0 8 24 -1.</_>
        <_>
          24 0 4 12 2.</_>
        <_>
          28 12 4 12 2.</_></rects>
      <tilted>0</tilted></_>
    <_>
      <rects>
        <_>
          24 4 4 28 -1.</_>
        <_>
          24 11 4 14 2.</_></rects>
      <tilted>0</tilted></_>
    <_>
      <rects>
        <_>
          24 18 6 14 -1.</_>
        <_>
          24 25 6 7 2.</_></rects>
      <tilted>0</tilted></_>
    <_>
      <rects>
        <_>
          24 19 7 6 -1.</_>
        <_>
          24 19 7 3 2.</_></rects>
      <tilted>1</tilted></_>
    <_>
      <rects>
        <_>
          25 4 7 28 -1.</_>
        <_>
          25 11 7 14 2.</_></rects>
      <tilted>0</tilted></_>
    <_>
      <rects>
        <_>
          25 12 6 11 -1.</_>
        <_>
          27 14 2 11 3.</_></rects>
      <tilted>1</tilted></_>
    <_>
      <rects>
        <_>
          26 0 6 22 -1.</_>
        <_>
          26 0 3 11 2.</_>
        <_>
          29 11 3 11 2.</_></rects>
      <tilted>0</tilted></_>
    <_>
      <rects>
        <_>
          26 9 6 17 -1.</_>
        <_>
          29 9 3 17 2.</_></rects>
      <tilted>0</tilted></_>
    <_>
      <rects>
        <_>
          27 18 2 14 -1.</_>
        <_>
          27 25 2 7 2.</_></rects>
      <tilted>0</tilted></_>
    <_>
      <rects>
        <_>
          28 14 4 18 -1.</_>
        <_>
          28 14 2 9 2.</_>
        <_>
          30 23 2 9 2.</_></rects>
      <tilted>0</tilted></_>
    <_>
      <rects>
        <_>
          28 17 4 13 -1.</_>
        <_>
          29 17 2 13 2.</_></rects>
      <tilted>0</tilted></_>
    <_>
      <rects>
        <_>
          28 30 4 2 -1.</_>
        <_>
          30 30 2 2 2.</_></rects>
      <tilted>0</tilted></_>
    <_>
      <rects>
        <_>
          30 21 2 8 -1.</_>
        <_>
          30 23 2 4 2.</_></rects>
      <tilted>0</tilted></_>
    <_>
      <rects>
        <_>
          30 24 2 8 -1.</_>
        <_>
          30 26 2 4 2.</_></rects>
      <tilted>0</tilted></_>
    <_>
      <rects>
        <_>
          30 30 2 2 -1.</_>
        <_>
          30 31 2 1 2.</_></rects>
      <tilted>0</tilted></_>
    <_>
      <rects>
        <_>
          31 0 1 28 -1.</_>
        <_>
          31 7 1 14 2.</_></rects>
      <tilted>0</tilted></_>
    <_>
      <rects>
        <_>
          31 13 1 18 -1.</_>
        <_>
          31 19 1 6 3.</_></rects>
      <tilted>0</tilted></_>
    <_>
      <rects>
        <_>
          31 16 1 16 -1.</_>
        <_>
          31 20 1 8 2.</_></rects>
      <tilted>0</tilted></_>
    <_>
      <rects>
        <_>
          31 19 1 12 -1.</_>
        <_>
          31 25 1 6 2.</_></rects>
      <tilted>0</tilted></_>
    <_>
      <rects>
        <_>
          31 20 1 12 -1.</_>
        <_>
          31 23 1 6 2.</_></rects>
      <tilted>0</tilted></_>
    <_>
      <rects>
        <_>
          31 20 1 12 -1.</_>
        <_>
          31 24 1 4 3.</_></rects>
      <tilted>0</tilted></_>
    <_>
      <rects>
        <_>
          31 21 1 9 -1.</_>
        <_>
          31 24 1 3 3.</_></rects>
      <tilted>0</tilted></_>
    <_>
      <rects>
        <_>
          31 24 1 6 -1.</_>
        <_>
          31 27 1 3 2.</_></rects>
      <tilted>0</tilted></_>
    <_>
      <rects>
        <_>
          31 26 1 6 -1.</_>
        <_>
          31 29 1 3 2.</_></rects>
      <tilted>0</tilted></_></features></cascade>
</opencv_storage>
